{
    "learner": {
        "attributes": {
            "best_iteration": "15",
            "best_score": "0.5496006490848053",
            "scikit_learn": "{\"_estimator_type\": \"classifier\"}"
        },
        "feature_names": [
            "dep_ratio",
            "dep_atr",
            "departure",
            "zone_width",
            "compactness_ratio",
            "leg_strength",
            "base_count",
            "avg_atr",
            "strength_score",
            "time_score",
            "curve_score",
            "trend_score",
            "curve_pos",
            "curve_third_code",
            "trend_aligned",
            "itf_trend_code",
            "htf_trend_code",
            "is_demand",
            "expected_cost_r",
            "asset_class_code",
            "timeframe_code",
            "regime_code",
            "bars_to_entry",
            "risk_atr",
            "tp_distance_atr"
        ],
        "feature_types": [
            "float",
            "float",
            "float",
            "float",
            "float",
            "float",
            "int",
            "float",
            "int",
            "int",
            "int",
            "int",
            "float",
            "int",
            "int",
            "int",
            "int",
            "int",
            "float",
            "int",
            "int",
            "int",
            "int",
            "float",
            "float"
        ],
        "gradient_booster": {
            "model": {
                "cats": {
                    "enc": [],
                    "feature_segments": [],
                    "sorted_idx": []
                },
                "gbtree_model_param": {
                    "num_parallel_tree": "1",
                    "num_trees": "66"
                },
                "iteration_indptr": [
                    0,
                    1,
                    2,
                    3,
                    4,
                    5,
                    6,
                    7,
                    8,
                    9,
                    10,
                    11,
                    12,
                    13,
                    14,
                    15,
                    16,
                    17,
                    18,
                    19,
                    20,
                    21,
                    22,
                    23,
                    24,
                    25,
                    26,
                    27,
                    28,
                    29,
                    30,
                    31,
                    32,
                    33,
                    34,
                    35,
                    36,
                    37,
                    38,
                    39,
                    40,
                    41,
                    42,
                    43,
                    44,
                    45,
                    46,
                    47,
                    48,
                    49,
                    50,
                    51,
                    52,
                    53,
                    54,
                    55,
                    56,
                    57,
                    58,
                    59,
                    60,
                    61,
                    62,
                    63,
                    64,
                    65,
                    66
                ],
                "tree_info": [
                    0,
                    0,
                    0,
                    0,
                    0,
                    0,
                    0,
                    0,
                    0,
                    0,
                    0,
                    0,
                    0,
                    0,
                    0,
                    0,
                    0,
                    0,
                    0,
                    0,
                    0,
                    0,
                    0,
                    0,
                    0,
                    0,
                    0,
                    0,
                    0,
                    0,
                    0,
                    0,
                    0,
                    0,
                    0,
                    0,
                    0,
                    0,
                    0,
                    0,
                    0,
                    0,
                    0,
                    0,
                    0,
                    0,
                    0,
                    0,
                    0,
                    0,
                    0,
                    0,
                    0,
                    0,
                    0,
                    0,
                    0,
                    0,
                    0,
                    0,
                    0,
                    0,
                    0,
                    0,
                    0,
                    0
                ],
                "trees": [
                    {
                        "base_weights": [
                            2.3758758E-2,
                            1.5878342E-1,
                            -1.1429216E-1,
                            7.628938E-2,
                            3.0558038E-1,
                            -7.308176E-2,
                            -5.839792E-1,
                            2.1056409E-1,
                            -1.1824014E-1,
                            1.8659988E-1,
                            5.214013E-1,
                            -3.1706687E-2,
                            -4.2678195E-1,
                            -7.8952026E-1,
                            -3.4530452E-1,
                            1.1622487E-2,
                            -8.599632E-3,
                            -6.8252576E-3,
                            2.23282E-2,
                            -5.3742356E-3,
                            1.3572951E-2,
                            3.0811379E-2,
                            6.2265615E-3,
                            -1.9931248E-3,
                            2.7098231E-2,
                            -5.7097077E-3,
                            -2.4552314E-2,
                            -3.6660052E-4,
                            -4.0964447E-2,
                            -4.349645E-2,
                            -3.880649E-3
                        ],
                        "categories": [],
                        "categories_nodes": [],
                        "categories_segments": [],
                        "categories_sizes": [],
                        "default_left": [
                            0,
                            0,
                            0,
                            0,
                            0,
                            0,
                            0,
                            0,
                            0,
                            0,
                            0,
                            0,
                            0,
                            0,
                            0,
                            0,
                            0,
                            0,
                            0,
                            0,
                            0,
                            0,
                            0,
                            0,
                            0,
                            0,
                            0,
                            0,
                            0,
                            0,
                            0
                        ],
                        "id": 0,
                        "left_children": [
                            1,
                            3,
                            5,
                            7,
                            9,
                            11,
                            13,
                            15,
                            17,
                            19,
                            21,
                            23,
                            25,
                            27,
                            29,
                            -1,
                            -1,
                            -1,
                            -1,
                            -1,
                            -1,
                            -1,
                            -1,
                            -1,
                            -1,
                            -1,
                            -1,
                            -1,
                            -1,
                            -1,
                            -1
                        ],
                        "loss_changes": [
                            4.564164E1,
                            1.496591E1,
                            2.33937E1,
                            2.0758703E1,
                            1.1329376E1,
                            1.62933E1,
                            4.51165E0,
                            1.6062284E1,
                            1.1606031E1,
                            1.418269E1,
                            1.4224098E1,
                            1.2867677E1,
                            6.1073074E0,
                            9.44072E0,
                            8.536539E0,
                            0E0,
                            0E0,
                            0E0,
                            0E0,
                            0E0,
                            0E0,
                            0E0,
                            0E0,
                            0E0,
                            0E0,
                            0E0,
                            0E0,
                            0E0,
                            0E0,
                            0E0,
                            0E0
                        ],
                        "parents": [
                            2147483647,
                            0,
                            0,
                            1,
                            1,
                            2,
                            2,
                            3,
                            3,
                            4,
                            4,
                            5,
                            5,
                            6,
                            6,
                            7,
                            7,
                            8,
                            8,
                            9,
                            9,
                            10,
                            10,
                            11,
                            11,
                            12,
                            12,
                            13,
                            13,
                            14,
                            14
                        ],
                        "right_children": [
                            2,
                            4,
                            6,
                            8,
                            10,
                            12,
                            14,
                            16,
                            18,
                            20,
                            22,
                            24,
                            26,
                            28,
                            30,
                            -1,
                            -1,
                            -1,
                            -1,
                            -1,
                            -1,
                            -1,
                            -1,
                            -1,
                            -1,
                            -1,
                            -1,
                            -1,
                            -1,
                            -1,
                            -1
                        ],
                        "split_conditions": [
                            2.4220808E0,
                            2.132E0,
                            1.5376022E0,
                            1.56E0,
                            1E0,
                            1E0,
                            2.581E0,
                            9.03E-1,
                            5.558E0,
                            1.2629922E-1,
                            2E0,
                            6.832E0,
                            8.34072E-2,
                            2.087E0,
                            0E0,
                            1.1622487E-2,
                            -8.599632E-3,
                            -6.8252576E-3,
                            2.23282E-2,
                            -5.3742356E-3,
                            1.3572951E-2,
                            3.0811379E-2,
                            6.2265615E-3,
                            -1.9931248E-3,
                            2.7098231E-2,
                            -5.7097077E-3,
                            -2.4552314E-2,
                            -3.6660052E-4,
                            -4.0964447E-2,
                            -4.349645E-2,
                            -3.880649E-3
                        ],
                        "split_indices": [
                            24,
                            1,
                            23,
                            1,
                            15,
                            14,
                            0,
                            12,
                            0,
                            18,
                            10,
                            1,
                            18,
                            0,
                            21,
                            0,
                            0,
                            0,
                            0,
                            0,
                            0,
                            0,
                            0,
                            0,
                            0,
                            0,
                            0,
                            0,
                            0,
                            0,
                            0
                        ],
                        "split_type": [
                            0,
                            0,
                            0,
                            0,
                            0,
                            0,
                            0,
                            0,
                            0,
                            0,
                            0,
                            0,
                            0,
                            0,
                            0,
                            0,
                            0,
                            0,
                            0,
                            0,
                            0,
                            0,
                            0,
                            0,
                            0,
                            0,
                            0,
                            0,
                            0,
                            0,
                            0
                        ],
                        "sum_hessian": [
                            2.4465757E3,
                            1.2367686E3,
                            1.2098071E3,
                            7.9277844E2,
                            4.439901E2,
                            1.1132831E3,
                            9.6524E1,
                            4.689805E2,
                            3.237979E2,
                            2.874085E2,
                            1.5658163E2,
                            9.976678E2,
                            1.1561534E2,
                            5.062178E1,
                            4.5902225E1,
                            3.9503662E2,
                            7.394388E1,
                            3.0121622E2,
                            2.2581717E1,
                            9.2705086E1,
                            1.9470341E2,
                            9.251756E1,
                            6.406407E1,
                            9.737159E2,
                            2.3951906E1,
                            4.6602543E1,
                            6.9012794E1,
                            1.19407E1,
                            3.868108E1,
                            1.06602545E1,
                            3.524197E1
                        ],
                        "tree_param": {
                            "num_deleted": "0",
                            "num_feature": "25",
                            "num_nodes": "31",
                            "size_leaf_vector": "1"
                        }
                    },
                    {
                        "base_weights": [
                            -1.2367566E-2,
                            1.0615429E-1,
                            -2.0338285E-1,
                            -7.608411E-3,
                            3.002396E-1,
                            -3.282254E-1,
                            -6.935299E-2,
                            1.426907E-1,
                            -9.731706E-2,
                            5.20319E-1,
                            1.6847543E-1,
                            -4.03224E-1,
                            4.5032924E-1,
                            -1.2285947E-1,
                            5.072464E-1,
                            1.0302535E-2,
                            -1.0971219E-2,
                            -4.8083622E-2,
                            -3.089558E-3,
                            2.6127359E-2,
                            1.9933948E-4,
                            8.332278E-3,
                            -3.8238417E-2,
                            -2.1722611E-2,
                            -7.206886E-3,
                            3.3993717E-2,
                            -1.5418584E-2,
                            1.6070286E-2,
                            -7.434513E-3,
                            -6.748188E-3,
                            3.2519653E-2
                        ],
                        "categories": [],
                        "categories_nodes": [],
                        "categories_segments": [],
                        "categories_sizes": [],
                        "default_left": [
                            0,
                            0,
                            0,
                            0,
                            0,
                            0,
                            0,
                            0,
                            0,
                            0,
                            0,
                            0,
                            0,
                            0,
                            0,
                            0,
                            0,
                            0,
                            0,
                            0,
                            0,
                            0,
                            0,
                            0,
                            0,
                            0,
                            0,
                            0,
                            0,
                            0,
                            0
                        ],
                        "id": 1,
                        "left_children": [
                            1,
                            3,
                            5,
                            7,
                            9,
                            11,
                            13,
                            15,
                            17,
                            19,
                            21,
                            23,
                            25,
                            27,
                            29,
                            -1,
                            -1,
                            -1,
                            -1,
                            -1,
                            -1,
                            -1,
                            -1,
                            -1,
                            -1,
                            -1,
                            -1,
                            -1,
                            -1,
                            -1,
                            -1
                        ],
                        "loss_changes": [
                            5.5528873E1,
                            3.3423317E1,
                            1.5691425E1,
                            1.289395E1,
                            1.613367E1,
                            2.8557262E1,
                            1.4074294E1,
                            1.7192547E1,
                            1.3189838E1,
                            1.4307575E1,
                            1.5936536E1,
                            1.3744858E1,
                            1.4743282E1,
                            1.3838064E1,
                            8.1479645E0,
                            0E0,
                            0E0,
                            0E0,
                            0E0,
                            0E0,
                            0E0,
                            0E0,
                            0E0,
                            0E0,
                            0E0,
                            0E0,
                            0E0,
                            0E0,
                            0E0,
                            0E0,
                            0E0
                        ],
                        "parents": [
                            2147483647,
                            0,
                            0,
                            1,
                            1,
                            2,
                            2,
                            3,
                            3,
                            4,
                            4,
                            5,
                            5,
                            6,
                            6,
                            7,
                            7,
                            8,
                            8,
                            9,
                            9,
                            10,
                            10,
                            11,
                            11,
                            12,
                            12,
                            13,
                            13,
                            14,
                            14
                        ],
                        "right_children": [
                            2,
                            4,
                            6,
                            8,
                            10,
                            12,
                            14,
                            16,
                            18,
                            20,
                            22,
                            24,
                            26,
                            28,
                            30,
                            -1,
                            -1,
                            -1,
                            -1,
                            -1,
                            -1,
                            -1,
                            -1,
                            -1,
                            -1,
                            -1,
                            -1,
                            -1,
                            -1,
                            -1,
                            -1
                        ],
                        "split_conditions": [
                            2.6785688E0,
                            4.01E0,
                            1E0,
                            1.452E0,
                            1E0,
                            9.41E-1,
                            3.82E2,
                            8.55E-1,
                            6.13E-1,
                            3.58E0,
                            9.78E-1,
                            1E0,
                            2.23912E0,
                            2.091E0,
                            7.83E-1,
                            1.0302535E-2,
                            -1.0971219E-2,
                            -4.8083622E-2,
                            -3.089558E-3,
                            2.6127359E-2,
                            1.9933948E-4,
                            8.332278E-3,
                            -3.8238417E-2,
                            -2.1722611E-2,
                            -7.206886E-3,
                            3.3993717E-2,
                            -1.5418584E-2,
                            1.6070286E-2,
                            -7.434513E-3,
                            -6.748188E-3,
                            3.2519653E-2
                        ],
                        "split_indices": [
                            24,
                            0,
                            17,
                            1,
                            10,
                            12,
                            22,
                            12,
                            5,
                            1,
                            12,
                            21,
                            7,
                            0,
                            5,
                            0,
                            0,
                            0,
                            0,
                            0,
                            0,
                            0,
                            0,
                            0,
                            0,
                            0,
                            0,
                            0,
                            0,
                            0,
                            0
                        ],
                        "split_type": [
                            0,
                            0,
                            0,
                            0,
                            0,
                            0,
                            0,
                            0,
                            0,
                            0,
                            0,
                            0,
                            0,
                            0,
                            0,
                            0,
                            0,
                            0,
                            0,
                            0,
                            0,
                            0,
                            0,
                            0,
                            0,
                            0,
                            0,
                            0,
                            0,
                            0,
                            0
                        ],
                        "sum_hessian": [
                            2.450791E3,
                            1.5126565E3,
                            9.381344E2,
                            9.5427246E2,
                            5.5838403E2,
                            4.8496405E2,
                            4.5317032E2,
                            3.5646146E2,
                            5.9781104E2,
                            2.0800851E2,
                            3.5037555E2,
                            4.4279178E2,
                            4.217227E1,
                            4.1540872E2,
                            3.776161E1,
                            2.7976926E2,
                            7.669219E1,
                            9.61985E0,
                            5.8819116E2,
                            1.6515927E2,
                            4.2849243E1,
                            3.391755E2,
                            1.1200058E1,
                            2.7127957E2,
                            1.7151219E2,
                            2.852187E1,
                            1.3650405E1,
                            4.3962746E1,
                            3.7144598E2,
                            1.1900287E1,
                            2.5861322E1
                        ],
                        "tree_param": {
                            "num_deleted": "0",
                            "num_feature": "25",
                            "num_nodes": "31",
                            "size_leaf_vector": "1"
                        }
                    },
                    {
                        "base_weights": [
                            -2.1167103E-2,
                            1.030983E-1,
                            -2.2219549E-1,
                            -5.272367E-3,
                            2.6992106E-1,
                            -1.8601225E-1,
                            -5.325055E-1,
                            1.4944237E-1,
                            -1.1428677E-1,
                            2.927774E-1,
                            -1.4799067E-1,
                            -2.176435E-1,
                            2.831967E-1,
                            -8.525166E-1,
                            -2.0064557E-1,
                            8.293922E-3,
                            -1.6683547E-2,
                            -1.0431444E-2,
                            2.2194009E-4,
                            9.964493E-3,
                            2.153877E-2,
                            8.447196E-3,
                            -4.8228517E-2,
                            -7.10931E-3,
                            -2.2179145E-2,
                            2.4233783E-2,
                            -7.2589465E-3,
                            -2.2328453E-2,
                            -5.398102E-2,
                            -2.5002072E-2,
                            1.567335E-2
                        ],
                        "categories": [],
                        "categories_nodes": [],
                        "categories_segments": [],
                        "categories_sizes": [],
                        "default_left": [
                            0,
                            0,
                            0,
                            0,
                            0,
                            0,
                            0,
                            0,
                            0,
                            0,
                            0,
                            0,
                            0,
                            0,
                            0,
                            0,
                            0,
                            0,
                            0,
                            0,
                            0,
                            0,
                            0,
                            0,
                            0,
                            0,
                            0,
                            0,
                            0,
                            0,
                            0
                        ],
                        "id": 2,
                        "left_children": [
                            1,
                            3,
                            5,
                            7,
                            9,
                            11,
                            13,
                            15,
                            17,
                            19,
                            21,
                            23,
                            25,
                            27,
                            29,
                            -1,
                            -1,
                            -1,
                            -1,
                            -1,
                            -1,
                            -1,
                            -1,
                            -1,
                            -1,
                            -1,
                            -1,
                            -1,
                            -1,
                            -1,
                            -1
                        ],
                        "loss_changes": [
                            6.060027E1,
                            2.7106415E1,
                            1.0305634E1,
                            1.5362666E1,
                            5.683094E0,
                            1.2401566E1,
                            1.00487385E1,
                            1.2438524E1,
                            9.381877E0,
                            5.8752403E0,
                            1.2138545E1,
                            1.0380451E1,
                            8.047747E0,
                            6.367676E0,
                            1.2452788E1,
                            0E0,
                            0E0,
                            0E0,
                            0E0,
                            0E0,
                            0E0,
                            0E0,
                            0E0,
                            0E0,
                            0E0,
                            0E0,
                            0E0,
                            0E0,
                            0E0,
                            0E0,
                            0E0
                        ],
                        "parents": [
                            2147483647,
                            0,
                            0,
                            1,
                            1,
                            2,
                            2,
                            3,
                            3,
                            4,
                            4,
                            5,
                            5,
                            6,
                            6,
                            7,
                            7,
                            8,
                            8,
                            9,
                            9,
                            10,
                            10,
                            11,
                            11,
                            12,
                            12,
                            13,
                            13,
                            14,
                            14
                        ],
                        "right_children": [
                            2,
                            4,
                            6,
                            8,
                            10,
                            12,
                            14,
                            16,
                            18,
                            20,
                            22,
                            24,
                            26,
                            28,
                            30,
                            -1,
                            -1,
                            -1,
                            -1,
                            -1,
                            -1,
                            -1,
                            -1,
                            -1,
                            -1,
                            -1,
                            -1,
                            -1,
                            -1,
                            -1,
                            -1
                        ],
                        "split_conditions": [
                            2.6785688E0,
                            3.888E0,
                            1.5376022E0,
                            1.487E0,
                            9.78E-1,
                            5.85E2,
                            2.581E0,
                            8.32824E0,
                            5.89E-1,
                            4.198E0,
                            3.645E0,
                            1E0,
                            3.359E0,
                            4.6E1,
                            1E0,
                            8.293922E-3,
                            -1.6683547E-2,
                            -1.0431444E-2,
                            2.2194009E-4,
                            9.964493E-3,
                            2.153877E-2,
                            8.447196E-3,
                            -4.8228517E-2,
                            -7.10931E-3,
                            -2.2179145E-2,
                            2.4233783E-2,
                            -7.2589465E-3,
                            -2.2328453E-2,
                            -5.398102E-2,
                            -2.5002072E-2,
                            1.567335E-2
                        ],
                        "split_indices": [
                            24,
                            0,
                            23,
                            1,
                            12,
                            22,
                            0,
                            7,
                            12,
                            1,
                            1,
                            14,
                            1,
                            22,
                            16,
                            0,
                            0,
                            0,
                            0,
                            0,
                            0,
                            0,
                            0,
                            0,
                            0,
                            0,
                            0,
                            0,
                            0,
                            0,
                            0
                        ],
                        "split_type": [
                            0,
                            0,
                            0,
                            0,
                            0,
                            0,
                            0,
                            0,
                            0,
                            0,
                            0,
                            0,
                            0,
                            0,
                            0,
                            0,
                            0,
                            0,
                            0,
                            0,
                            0,
                            0,
                            0,
                            0,
                            0,
                            0,
                            0,
                            0,
                            0,
                            0,
                            0
                        ],
                        "sum_hessian": [
                            2.4239497E3,
                            1.4982782E3,
                            9.256714E2,
                            9.08846E2,
                            5.894322E2,
                            8.304387E2,
                            9.523264E1,
                            3.7552496E2,
                            5.3332104E2,
                            5.591507E2,
                            3.0281487E1,
                            7.784935E2,
                            5.1945198E1,
                            4.7683117E1,
                            4.754953E1,
                            3.4127676E2,
                            3.4248226E1,
                            2.394346E2,
                            2.9388644E2,
                            4.7648276E2,
                            8.266794E1,
                            2.3202845E1,
                            7.0786424E0,
                            6.973893E2,
                            8.110425E1,
                            3.0478426E1,
                            2.1466774E1,
                            3.1282337E1,
                            1.640078E1,
                            2.767228E1,
                            1.9877249E1
                        ],
                        "tree_param": {
                            "num_deleted": "0",
                            "num_feature": "25",
                            "num_nodes": "31",
                            "size_leaf_vector": "1"
                        }
                    },
                    {
                        "base_weights": [
                            -4.5652157E-3,
                            -8.250296E-2,
                            1.678501E-1,
                            -5.319734E-2,
                            -5.627842E-1,
                            2.3659831E-1,
                            -8.977804E-2,
                            -6.316139E-1,
                            -3.525568E-2,
                            -1.0176381E0,
                            -3.725612E-1,
                            -4.9692973E-2,
                            2.5634077E-1,
                            3.51579E-2,
                            -1.5653123E-1,
                            -4.241558E-3,
                            -3.832882E-2,
                            4.2790524E-3,
                            -4.001173E-3,
                            -1.2441077E-2,
                            -5.4655716E-2,
                            -7.365992E-3,
                            -4.602923E-2,
                            1.4380857E-2,
                            2.0748368E-3,
                            -1.15008075E-2,
                            1.2402803E-2
                        ],
                        "categories": [],
                        "categories_nodes": [],
                        "categories_segments": [],
                        "categories_sizes": [],
                        "default_left": [
                            0,
                            0,
                            0,
                            0,
                            0,
                            0,
                            0,
                            0,
                            0,
                            0,
                            0,
                            0,
                            0,
                            0,
                            0,
                            0,
                            0,
                            0,
                            0,
                            0,
                            0,
                            0,
                            0,
                            0,
                            0,
                            0,
                            0
                        ],
                        "id": 3,
                        "left_children": [
                            1,
                            3,
                            5,
                            7,
                            9,
                            11,
                            13,
                            15,
                            17,
                            19,
                            21,
                            -1,
                            23,
                            -1,
                            25,
                            -1,
                            -1,
                            -1,
                            -1,
                            -1,
                            -1,
                            -1,
                            -1,
                            -1,
                            -1,
                            -1,
                            -1
                        ],
                        "loss_changes": [
                            3.2807907E1,
                            2.3635483E1,
                            1.3483234E1,
                            1.6434738E1,
                            7.9781723E0,
                            1.7844154E1,
                            1.0537555E1,
                            8.077839E0,
                            1.4190683E1,
                            6.451824E0,
                            1.0004962E1,
                            0E0,
                            1.2495586E1,
                            0E0,
                            9.337048E0,
                            0E0,
                            0E0,
                            0E0,
                            0E0,
                            0E0,
                            0E0,
                            0E0,
                            0E0,
                            0E0,
                            0E0,
                            0E0,
                            0E0
                        ],
                        "parents": [
                            2147483647,
                            0,
                            0,
                            1,
                            1,
                            2,
                            2,
                            3,
                            3,
                            4,
                            4,
                            5,
                            5,
                            6,
                            6,
                            7,
                            7,
                            8,
                            8,
                            9,
                            9,
                            10,
                            10,
                            12,
                            12,
                            14,
                            14
                        ],
                        "right_children": [
                            2,
                            4,
                            6,
                            8,
                            10,
                            12,
                            14,
                            16,
                            18,
                            20,
                            22,
                            -1,
                            24,
                            -1,
                            26,
                            -1,
                            -1,
                            -1,
                            -1,
                            -1,
                            -1,
                            -1,
                            -1,
                            -1,
                            -1,
                            -1,
                            -1
                        ],
                        "split_conditions": [
                            3.888E0,
                            1.5221239E0,
                            9.0234065E-1,
                            6.23E-1,
                            3.611E0,
                            6.13E-1,
                            3E0,
                            1E0,
                            1.632E0,
                            0E0,
                            1.67E2,
                            -4.9692973E-2,
                            2E0,
                            3.51579E-2,
                            6.15E0,
                            -4.241558E-3,
                            -3.832882E-2,
                            4.2790524E-3,
                            -4.001173E-3,
                            -1.2441077E-2,
                            -5.4655716E-2,
                            -7.365992E-3,
                            -4.602923E-2,
                            1.4380857E-2,
                            2.0748368E-3,
                            -1.15008075E-2,
                            1.2402803E-2
                        ],
                        "split_indices": [
                            0,
                            23,
                            23,
                            5,
                            1,
                            5,
                            22,
                            10,
                            1,
                            21,
                            22,
                            0,
                            10,
                            0,
                            0,
                            0,
                            0,
                            0,
                            0,
                            0,
                            0,
                            0,
                            0,
                            0,
                            0,
                            0,
                            0
                        ],
                        "split_type": [
                            0,
                            0,
                            0,
                            0,
                            0,
                            0,
                            0,
                            0,
                            0,
                            0,
                            0,
                            0,
                            0,
                            0,
                            0,
                            0,
                            0,
                            0,
                            0,
                            0,
                            0,
                            0,
                            0,
                            0,
                            0,
                            0,
                            0
                        ],
                        "sum_hessian": [
                            2.4394587E3,
                            1.6803867E3,
                            7.59072E2,
                            1.584797E3,
                            9.55898E1,
                            5.992449E2,
                            1.5982718E2,
                            4.665016E1,
                            1.5381469E3,
                            2.690526E1,
                            6.868454E1,
                            7.0782886E0,
                            5.9216656E2,
                            9.519054E0,
                            1.5030812E2,
                            1.8386806E1,
                            2.8263357E1,
                            4.81094E2,
                            1.0570529E3,
                            9.516244E0,
                            1.7389015E1,
                            5.6291756E1,
                            1.2392785E1,
                            3.9306012E2,
                            1.9910645E2,
                            1.1766096E2,
                            3.2647163E1
                        ],
                        "tree_param": {
                            "num_deleted": "0",
                            "num_feature": "25",
                            "num_nodes": "27",
                            "size_leaf_vector": "1"
                        }
                    },
                    {
                        "base_weights": [
                            -4.3607275E-3,
                            1.323877E-1,
                            -1.2811898E-1,
                            2.2432387E-1,
                            -5.9989333E-2,
                            -2.000244E-1,
                            1.13892324E-1,
                            1.2087215E-1,
                            4.4217128E-1,
                            3.1204874E-2,
                            -3.639855E-1,
                            -6.2827396E-1,
                            -1.725434E-1,
                            -5.550649E-1,
                            1.727333E-1,
                            -2.9263651E-2,
                            5.8278507E-3,
                            2.0556176E-2,
                            -2.6568975E-2,
                            2.3671158E-2,
                            -1.3660006E-3,
                            -3.5413194E-2,
                            -1.874106E-3,
                            -4.875961E-3,
                            -4.2974375E-2,
                            -1.4748252E-2,
                            -4.003033E-3,
                            1.2414256E-2,
                            -4.1377626E-2,
                            3.8601086E-3,
                            2.6478678E-2
                        ],
                        "categories": [],
                        "categories_nodes": [],
                        "categories_segments": [],
                        "categories_sizes": [],
                        "default_left": [
                            0,
                            0,
                            0,
                            0,
                            0,
                            0,
                            0,
                            0,
                            0,
                            0,
                            0,
                            0,
                            0,
                            0,
                            0,
                            0,
                            0,
                            0,
                            0,
                            0,
                            0,
                            0,
                            0,
                            0,
                            0,
                            0,
                            0,
                            0,
                            0,
                            0,
                            0
                        ],
                        "id": 4,
                        "left_children": [
                            1,
                            3,
                            5,
                            7,
                            9,
                            11,
                            13,
                            15,
                            17,
                            19,
                            21,
                            23,
                            25,
                            27,
                            29,
                            -1,
                            -1,
                            -1,
                            -1,
                            -1,
                            -1,
                            -1,
                            -1,
                            -1,
                            -1,
                            -1,
                            -1,
                            -1,
                            -1,
                            -1,
                            -1
                        ],
                        "loss_changes": [
                            4.1450333E1,
                            2.059284E1,
                            2.2395885E1,
                            1.7694798E1,
                            1.0464029E1,
                            1.156073E1,
                            1.1712856E1,
                            1.1435175E1,
                            2.0435925E1,
                            1.0679829E1,
                            1.4356867E1,
                            1.3289419E1,
                            1.3227894E1,
                            1.03184185E1,
                            1.00814705E1,
                            0E0,
                            0E0,
                            0E0,
                            0E0,
                            0E0,
                            0E0,
                            0E0,
                            0E0,
                            0E0,
                            0E0,
                            0E0,
                            0E0,
                            0E0,
                            0E0,
                            0E0,
                            0E0
                        ],
                        "parents": [
                            2147483647,
                            0,
                            0,
                            1,
                            1,
                            2,
                            2,
                            3,
                            3,
                            4,
                            4,
                            5,
                            5,
                            6,
                            6,
                            7,
                            7,
                            8,
                            8,
                            9,
                            9,
                            10,
                            10,
                            11,
                            11,
                            12,
                            12,
                            13,
                            13,
                            14,
                            14
                        ],
                        "right_children": [
                            2,
                            4,
                            6,
                            8,
                            10,
                            12,
                            14,
                            16,
                            18,
                            20,
                            22,
                            24,
                            26,
                            28,
                            30,
                            -1,
                            -1,
                            -1,
                            -1,
                            -1,
                            -1,
                            -1,
                            -1,
                            -1,
                            -1,
                            -1,
                            -1,
                            -1,
                            -1,
                            -1,
                            -1
                        ],
                        "split_conditions": [
                            6.81E-1,
                            2E0,
                            1.6111244E-1,
                            1E0,
                            9.11E-1,
                            6.47E-1,
                            1.97E-3,
                            6.23E-1,
                            7.18677E0,
                            3.19E-1,
                            4.75E-1,
                            1E0,
                            3.3E-1,
                            5.4E-4,
                            1.84E2,
                            -2.9263651E-2,
                            5.8278507E-3,
                            2.0556176E-2,
                            -2.6568975E-2,
                            2.3671158E-2,
                            -1.3660006E-3,
                            -3.5413194E-2,
                            -1.874106E-3,
                            -4.875961E-3,
                            -4.2974375E-2,
                            -1.4748252E-2,
                            -4.003033E-3,
                            1.2414256E-2,
                            -4.1377626E-2,
                            3.8601086E-3,
                            2.6478678E-2
                        ],
                        "split_indices": [
                            4,
                            10,
                            18,
                            15,
                            12,
                            5,
                            2,
                            5,
                            3,
                            4,
                            4,
                            10,
                            12,
                            3,
                            22,
                            0,
                            0,
                            0,
                            0,
                            0,
                            0,
                            0,
                            0,
                            0,
                            0,
                            0,
                            0,
                            0,
                            0,
                            0,
                            0
                        ],
                        "split_type": [
                            0,
                            0,
                            0,
                            0,
                            0,
                            0,
                            0,
                            0,
                            0,
                            0,
                            0,
                            0,
                            0,
                            0,
                            0,
                            0,
                            0,
                            0,
                            0,
                            0,
                            0,
                            0,
                            0,
                            0,
                            0,
                            0,
                            0,
                            0,
                            0,
                            0,
                            0
                        ],
                        "sum_hessian": [
                            2.447239E3,
                            1.1625706E3,
                            1.2846683E3,
                            7.865267E2,
                            3.7604388E2,
                            9.905374E2,
                            2.9413098E2,
                            5.3433545E2,
                            2.5219122E2,
                            2.899582E2,
                            8.608568E1,
                            5.841207E1,
                            9.321253E2,
                            2.3098068E1,
                            2.710329E2,
                            1.431417E1,
                            5.200213E2,
                            2.3733888E2,
                            1.4852341E1,
                            2.9434269E1,
                            2.6052393E2,
                            3.1882086E1,
                            5.4203594E1,
                            2.7953665E1,
                            3.0458406E1,
                            2.503536E2,
                            6.817717E2,
                            8.359383E0,
                            1.4738686E1,
                            2.3553064E2,
                            3.550227E1
                        ],
                        "tree_param": {
                            "num_deleted": "0",
                            "num_feature": "25",
                            "num_nodes": "31",
                            "size_leaf_vector": "1"
                        }
                    },
                    {
                        "base_weights": [
                            1.362468E-2,
                            -8.4309205E-2,
                            1.7134343E-1,
                            -2.0209661E-1,
                            4.1779492E-2,
                            6.8711296E-2,
                            3.6611348E-1,
                            -7.336035E-1,
                            -1.5122221E-1,
                            1.9649093E-1,
                            -2.0396996E-1,
                            -3.527495E-2,
                            8.6055435E-2,
                            2.8978828E-1,
                            7.611658E-1,
                            -2.0877995E-2,
                            -5.1180344E-2,
                            -2.4623325E-2,
                            -4.618927E-3,
                            1.8408831E-2,
                            4.0589133E-3,
                            -1.2846993E-3,
                            -1.604858E-2,
                            -8.7646156E-4,
                            7.1944445E-3,
                            1.6924653E-2,
                            -1.0936774E-3,
                            5.0229743E-2,
                            2.3280272E-2
                        ],
                        "categories": [],
                        "categories_nodes": [],
                        "categories_segments": [],
                        "categories_sizes": [],
                        "default_left": [
                            0,
                            0,
                            0,
                            0,
                            0,
                            0,
                            0,
                            0,
                            0,
                            0,
                            0,
                            0,
                            0,
                            0,
                            0,
                            0,
                            0,
                            0,
                            0,
                            0,
                            0,
                            0,
                            0,
                            0,
                            0,
                            0,
                            0,
                            0,
                            0
                        ],
                        "id": 5,
                        "left_children": [
                            1,
                            3,
                            5,
                            7,
                            9,
                            11,
                            13,
                            15,
                            17,
                            19,
                            21,
                            -1,
                            23,
                            25,
                            27,
                            -1,
                            -1,
                            -1,
                            -1,
                            -1,
                            -1,
                            -1,
                            -1,
                            -1,
                            -1,
                            -1,
                            -1,
                            -1,
                            -1
                        ],
                        "loss_changes": [
                            3.8090668E1,
                            2.2604725E1,
                            1.8858126E1,
                            2.1164158E1,
                            2.801031E1,
                            1.0296029E1,
                            9.602009E0,
                            7.24358E0,
                            1.18700695E1,
                            1.12790985E1,
                            9.6376915E0,
                            0E0,
                            6.1788435E0,
                            1.1623627E1,
                            3.8885365E0,
                            0E0,
                            0E0,
                            0E0,
                            0E0,
                            0E0,
                            0E0,
                            0E0,
                            0E0,
                            0E0,
                            0E0,
                            0E0,
                            0E0,
                            0E0,
                            0E0
                        ],
                        "parents": [
                            2147483647,
                            0,
                            0,
                            1,
                            1,
                            2,
                            2,
                            3,
                            3,
                            4,
                            4,
                            5,
                            5,
                            6,
                            6,
                            7,
                            7,
                            8,
                            8,
                            9,
                            9,
                            10,
                            10,
                            12,
                            12,
                            13,
                            13,
                            14,
                            14
                        ],
                        "right_children": [
                            2,
                            4,
                            6,
                            8,
                            10,
                            12,
                            14,
                            16,
                            18,
                            20,
                            22,
                            -1,
                            24,
                            26,
                            28,
                            -1,
                            -1,
                            -1,
                            -1,
                            -1,
                            -1,
                            -1,
                            -1,
                            -1,
                            -1,
                            -1,
                            -1,
                            -1,
                            -1
                        ],
                        "split_conditions": [
                            1.635087E-1,
                            1E0,
                            4.273E0,
                            3.783201E-2,
                            2E0,
                            2.005E0,
                            4.4723484E-1,
                            1E0,
                            6.49E-1,
                            5.59E-1,
                            9.67E-1,
                            -3.527495E-2,
                            2.397E-1,
                            2.7534246E-1,
                            0E0,
                            -2.0877995E-2,
                            -5.1180344E-2,
                            -2.4623325E-2,
                            -4.618927E-3,
                            1.8408831E-2,
                            4.0589133E-3,
                            -1.2846993E-3,
                            -1.604858E-2,
                            -8.7646156E-4,
                            7.1944445E-3,
                            1.6924653E-2,
                            -1.0936774E-3,
                            5.0229743E-2,
                            2.3280272E-2
                        ],
                        "split_indices": [
                            18,
                            17,
                            0,
                            18,
                            6,
                            0,
                            18,
                            16,
                            5,
                            4,
                            4,
                            0,
                            7,
                            18,
                            16,
                            0,
                            0,
                            0,
                            0,
                            0,
                            0,
                            0,
                            0,
                            0,
                            0,
                            0,
                            0,
                            0,
                            0
                        ],
                        "split_type": [
                            0,
                            0,
                            0,
                            0,
                            0,
                            0,
                            0,
                            0,
                            0,
                            0,
                            0,
                            0,
                            0,
                            0,
                            0,
                            0,
                            0,
                            0,
                            0,
                            0,
                            0,
                            0,
                            0,
                            0,
                            0,
                            0,
                            0,
                            0,
                            0
                        ],
                        "sum_hessian": [
                            2.464117E3,
                            1.520465E3,
                            9.4365204E2,
                            7.8579834E2,
                            7.346666E2,
                            6.18888E2,
                            3.2476407E2,
                            6.747175E1,
                            7.183266E2,
                            4.5096335E2,
                            2.837033E2,
                            1.0196559E1,
                            6.0869147E2,
                            2.7363126E2,
                            5.1132793E1,
                            5.0030483E1,
                            1.7441265E1,
                            5.018828E1,
                            6.681383E2,
                            1.1842431E2,
                            3.3253903E2,
                            1.5223177E2,
                            1.3147154E2,
                            2.833417E2,
                            3.2534973E2,
                            1.9240573E2,
                            8.122554E1,
                            1.1999216E1,
                            3.9133575E1
                        ],
                        "tree_param": {
                            "num_deleted": "0",
                            "num_feature": "25",
                            "num_nodes": "29",
                            "size_leaf_vector": "1"
                        }
                    },
                    {
                        "base_weights": [
                            -1.844099E-3,
                            9.450623E-2,
                            -1.506162E-1,
                            1.736722E-1,
                            -6.730859E-2,
                            -2.7030957E-1,
                            -2.7018758E-2,
                            8.818814E-2,
                            4.5314592E-1,
                            -7.042603E-1,
                            -3.7236515E-2,
                            -4.035512E-1,
                            -5.5289846E-2,
                            1.09905384E-1,
                            -2.5424474E-1,
                            -5.835317E-4,
                            1.1584721E-2,
                            8.214111E-3,
                            2.9108461E-2,
                            -6.61621E-2,
                            -1.1485545E-2,
                            -2.2430425E-3,
                            3.0682446E-2,
                            -1.869412E-2,
                            6.7656403E-3,
                            2.100192E-3,
                            -1.7675139E-2,
                            3.8319442E-2,
                            1.6837477E-3,
                            -6.2971697E-3,
                            -4.2329144E-2
                        ],
                        "categories": [],
                        "categories_nodes": [],
                        "categories_segments": [],
                        "categories_sizes": [],
                        "default_left": [
                            0,
                            0,
                            0,
                            0,
                            0,
                            0,
                            0,
                            0,
                            0,
                            0,
                            0,
                            0,
                            0,
                            0,
                            0,
                            0,
                            0,
                            0,
                            0,
                            0,
                            0,
                            0,
                            0,
                            0,
                            0,
                            0,
                            0,
                            0,
                            0,
                            0,
                            0
                        ],
                        "id": 6,
                        "left_children": [
                            1,
                            3,
                            5,
                            7,
                            9,
                            11,
                            13,
                            15,
                            17,
                            19,
                            21,
                            23,
                            25,
                            27,
                            29,
                            -1,
                            -1,
                            -1,
                            -1,
                            -1,
                            -1,
                            -1,
                            -1,
                            -1,
                            -1,
                            -1,
                            -1,
                            -1,
                            -1,
                            -1,
                            -1
                        ],
                        "loss_changes": [
                            3.5059433E1,
                            1.9028118E1,
                            1.4215254E1,
                            2.3780807E1,
                            9.328684E0,
                            1.3967167E1,
                            1.47782E1,
                            1.5836785E1,
                            1.5723526E1,
                            8.226287E0,
                            7.125801E0,
                            1.1088898E1,
                            7.8565893E0,
                            1.7012829E1,
                            1.3732547E1,
                            0E0,
                            0E0,
                            0E0,
                            0E0,
                            0E0,
                            0E0,
                            0E0,
                            0E0,
                            0E0,
                            0E0,
                            0E0,
                            0E0,
                            0E0,
                            0E0,
                            0E0,
                            0E0
                        ],
                        "parents": [
                            2147483647,
                            0,
                            0,
                            1,
                            1,
                            2,
                            2,
                            3,
                            3,
                            4,
                            4,
                            5,
                            5,
                            6,
                            6,
                            7,
                            7,
                            8,
                            8,
                            9,
                            9,
                            10,
                            10,
                            11,
                            11,
                            12,
                            12,
                            13,
                            13,
                            14,
                            14
                        ],
                        "right_children": [
                            2,
                            4,
                            6,
                            8,
                            10,
                            12,
                            14,
                            16,
                            18,
                            20,
                            22,
                            24,
                            26,
                            28,
                            30,
                            -1,
                            -1,
                            -1,
                            -1,
                            -1,
                            -1,
                            -1,
                            -1,
                            -1,
                            -1,
                            -1,
                            -1,
                            -1,
                            -1,
                            -1,
                            -1
                        ],
                        "split_conditions": [
                            7.89E-1,
                            2E0,
                            1E0,
                            3.7E1,
                            6.35E-1,
                            1E0,
                            1E0,
                            3.97E0,
                            1.6837852E-1,
                            1.198841E-1,
                            1.261E3,
                            9.32E-1,
                            9.13E-1,
                            2.05E0,
                            4E0,
                            -5.835317E-4,
                            1.1584721E-2,
                            8.214111E-3,
                            2.9108461E-2,
                            -6.61621E-2,
                            -1.1485545E-2,
                            -2.2430425E-3,
                            3.0682446E-2,
                            -1.869412E-2,
                            6.7656403E-3,
                            2.100192E-3,
                            -1.7675139E-2,
                            3.8319442E-2,
                            1.6837477E-3,
                            -6.2971697E-3,
                            -4.2329144E-2
                        ],
                        "split_indices": [
                            4,
                            10,
                            17,
                            22,
                            5,
                            21,
                            21,
                            0,
                            18,
                            18,
                            22,
                            12,
                            5,
                            0,
                            6,
                            0,
                            0,
                            0,
                            0,
                            0,
                            0,
                            0,
                            0,
                            0,
                            0,
                            0,
                            0,
                            0,
                            0,
                            0,
                            0
                        ],
                        "split_type": [
                            0,
                            0,
                            0,
                            0,
                            0,
                            0,
                            0,
                            0,
                            0,
                            0,
                            0,
                            0,
                            0,
                            0,
                            0,
                            0,
                            0,
                            0,
                            0,
                            0,
                            0,
                            0,
                            0,
                            0,
                            0,
                            0,
                            0,
                            0,
                            0,
                            0,
                            0
                        ],
                        "sum_hessian": [
                            2.4438594E3,
                            1.4834724E3,
                            9.6038696E2,
                            9.960792E2,
                            4.873932E2,
                            4.8729608E2,
                            4.7309088E2,
                            7.63775E2,
                            2.3230423E2,
                            2.0962877E1,
                            4.664303E2,
                            3.0031967E2,
                            1.8697641E2,
                            2.955261E2,
                            1.775648E2,
                            5.06347E2,
                            2.57428E2,
                            1.23024025E2,
                            1.092802E2,
                            5.4920354E0,
                            1.5470842E1,
                            4.5666388E2,
                            9.766434E0,
                            2.7038132E2,
                            2.9938375E1,
                            1.468841E2,
                            4.009232E1,
                            2.0908514E1,
                            2.7461758E2,
                            1.5954791E2,
                            1.80169E1
                        ],
                        "tree_param": {
                            "num_deleted": "0",
                            "num_feature": "25",
                            "num_nodes": "31",
                            "size_leaf_vector": "1"
                        }
                    },
                    {
                        "base_weights": [
                            9.631995E-3,
                            -6.877891E-2,
                            1.8388472E-1,
                            -2.0183067E-1,
                            5.747616E-2,
                            3.1651783E-1,
                            -1.9374445E-2,
                            -1.4045769E-1,
                            -6.319851E-1,
                            -2.708253E-1,
                            1.2552829E-1,
                            2.4089742E-1,
                            5.285799E-1,
                            -1.5127769E-1,
                            2.7739778E-1,
                            -4.8668765E-2,
                            -4.504937E-3,
                            -3.714696E-2,
                            -1.0328277E-2,
                            -4.272544E-3,
                            -2.8698577E-2,
                            1.54612325E-2,
                            1.9002993E-3,
                            -2.3383185E-2,
                            1.0647E-2,
                            2.8812265E-2,
                            -8.503429E-3,
                            -4.2677647E-3,
                            -3.277914E-2,
                            -3.7448038E-3,
                            2.0368109E-2
                        ],
                        "categories": [],
                        "categories_nodes": [],
                        "categories_segments": [],
                        "categories_sizes": [],
                        "default_left": [
                            0,
                            0,
                            0,
                            0,
                            0,
                            0,
                            0,
                            0,
                            0,
                            0,
                            0,
                            0,
                            0,
                            0,
                            0,
                            0,
                            0,
                            0,
                            0,
                            0,
                            0,
                            0,
                            0,
                            0,
                            0,
                            0,
                            0,
                            0,
                            0,
                            0,
                            0
                        ],
                        "id": 7,
                        "left_children": [
                            1,
                            3,
                            5,
                            7,
                            9,
                            11,
                            13,
                            15,
                            17,
                            19,
                            21,
                            23,
                            25,
                            27,
                            29,
                            -1,
                            -1,
                            -1,
                            -1,
                            -1,
                            -1,
                            -1,
                            -1,
                            -1,
                            -1,
                            -1,
                            -1,
                            -1,
                            -1,
                            -1,
                            -1
                        ],
                        "loss_changes": [
                            3.3606533E1,
                            2.8508451E1,
                            2.058374E1,
                            2.1722477E1,
                            1.9498209E1,
                            7.280632E0,
                            1.1877261E1,
                            2.15612E1,
                            1.1168457E1,
                            1.0904097E1,
                            1.4690481E1,
                            7.2993164E0,
                            1.7289371E1,
                            6.1674247E0,
                            8.079031E0,
                            0E0,
                            0E0,
                            0E0,
                            0E0,
                            0E0,
                            0E0,
                            0E0,
                            0E0,
                            0E0,
                            0E0,
                            0E0,
                            0E0,
                            0E0,
                            0E0,
                            0E0,
                            0E0
                        ],
                        "parents": [
                            2147483647,
                            0,
                            0,
                            1,
                            1,
                            2,
                            2,
                            3,
                            3,
                            4,
                            4,
                            5,
                            5,
                            6,
                            6,
                            7,
                            7,
                            8,
                            8,
                            9,
                            9,
                            10,
                            10,
                            11,
                            11,
                            12,
                            12,
                            13,
                            13,
                            14,
                            14
                        ],
                        "right_children": [
                            2,
                            4,
                            6,
                            8,
                            10,
                            12,
                            14,
                            16,
                            18,
                            20,
                            22,
                            24,
                            26,
                            28,
                            30,
                            -1,
                            -1,
                            -1,
                            -1,
                            -1,
                            -1,
                            -1,
                            -1,
                            -1,
                            -1,
                            -1,
                            -1,
                            -1,
                            -1,
                            -1,
                            -1
                        ],
                        "split_conditions": [
                            3.888E0,
                            1E0,
                            7.5398386E-1,
                            1.125989E1,
                            1.93E-3,
                            6.573705E-1,
                            1.6111244E-1,
                            2.913264E-2,
                            8.36E-1,
                            9.73E-1,
                            5.57E-1,
                            6.2E-1,
                            8.91E-1,
                            9.69E-1,
                            2.2E1,
                            -4.8668765E-2,
                            -4.504937E-3,
                            -3.714696E-2,
                            -1.0328277E-2,
                            -4.272544E-3,
                            -2.8698577E-2,
                            1.54612325E-2,
                            1.9002993E-3,
                            -2.3383185E-2,
                            1.0647E-2,
                            2.8812265E-2,
                            -8.503429E-3,
                            -4.2677647E-3,
                            -3.277914E-2,
                            -3.7448038E-3,
                            2.0368109E-2
                        ],
                        "split_indices": [
                            0,
                            17,
                            23,
                            2,
                            7,
                            23,
                            18,
                            18,
                            5,
                            4,
                            4,
                            5,
                            5,
                            5,
                            22,
                            0,
                            0,
                            0,
                            0,
                            0,
                            0,
                            0,
                            0,
                            0,
                            0,
                            0,
                            0,
                            0,
                            0,
                            0,
                            0
                        ],
                        "split_type": [
                            0,
                            0,
                            0,
                            0,
                            0,
                            0,
                            0,
                            0,
                            0,
                            0,
                            0,
                            0,
                            0,
                            0,
                            0,
                            0,
                            0,
                            0,
                            0,
                            0,
                            0,
                            0,
                            0,
                            0,
                            0,
                            0,
                            0,
                            0,
                            0,
                            0,
                            0
                        ],
                        "sum_hessian": [
                            2.4576924E3,
                            1.6953967E3,
                            7.622957E2,
                            8.2518787E2,
                            8.702088E2,
                            4.6095236E2,
                            3.0134335E2,
                            7.233144E2,
                            1.0187351E2,
                            1.4889935E2,
                            7.2130945E2,
                            3.4136063E2,
                            1.1959174E2,
                            2.0895956E2,
                            9.2383804E1,
                            1.7157953E1,
                            7.0615643E2,
                            5.5965763E1,
                            4.5907753E1,
                            1.09813545E2,
                            3.908581E1,
                            1.6508786E2,
                            5.562216E2,
                            9.485068E0,
                            3.3187555E2,
                            9.503577E1,
                            2.455597E1,
                            1.969766E2,
                            1.1982963E1,
                            3.57538E1,
                            5.6630005E1
                        ],
                        "tree_param": {
                            "num_deleted": "0",
                            "num_feature": "25",
                            "num_nodes": "31",
                            "size_leaf_vector": "1"
                        }
                    },
                    {
                        "base_weights": [
                            -4.257874E-3,
                            9.72303E-2,
                            -1.7132372E-1,
                            -6.073018E-3,
                            2.551321E-1,
                            -2.9953107E-1,
                            -5.7674747E-2,
                            7.2481565E-2,
                            -1.7275871E-1,
                            -1.2755877E-1,
                            2.8511402E-1,
                            1.4815219E-1,
                            -3.7453875E-1,
                            1.2358656E-1,
                            -1.6430686E-1,
                            2.3713628E-4,
                            1.7967435E-2,
                            -1.5479249E-3,
                            -1.4868239E-2,
                            -3.445327E-2,
                            5.824268E-3,
                            1.4452859E-2,
                            4.034835E-3,
                            -1.3651022E-3,
                            3.4480486E-2,
